digraph Tree {
node [shape=box, style="filled, rounded", color="black", fontname="helvetica"] ;
edge [fontname="helvetica"] ;
0 [label="petal width (cm) <= 0.8\ngini = 0.65\nsamples = 96\nvalue = [62, 50, 38]\nclass = setosa", fillcolor="#fcf0e7"] ;
1 [label="gini = 0.0\nsamples = 35\nvalue = [62, 0, 0]\nclass = setosa", fillcolor="#e58139"] ;
0 -> 1 [labeldistance=2.5, labelangle=45, headlabel="True"] ;
2 [label="petal width (cm) <= 1.65\ngini = 0.49\nsamples = 61\nvalue = [0, 50, 38]\nclass = versicolor", fillcolor="#cff9e1"] ;
0 -> 2 [labeldistance=2.5, labelangle=-45, headlabel="False"] ;
3 [label="petal length (cm) <= 4.9\ngini = 0.04\nsamples = 33\nvalue = [0, 48, 1]\nclass = versicolor", fillcolor="#3de684"] ;
2 -> 3 ;
4 [label="gini = 0.0\nsamples = 32\nvalue = [0, 48, 0]\nclass = versicolor", fillcolor="#39e581"] ;
3 -> 4 ;
5 [label="gini = 0.0\nsamples = 1\nvalue = [0, 0, 1]\nclass = virginica", fillcolor="#8139e5"] ;
3 -> 5 ;
6 [label="petal length (cm) <= 4.85\ngini = 0.1\nsamples = 28\nvalue = [0, 2, 37]\nclass = virginica", fillcolor="#8844e6"] ;
2 -> 6 ;
7 [label="sepal length (cm) <= 5.95\ngini = 0.48\nsamples = 4\nvalue = [0, 2, 3]\nclass = virginica", fillcolor="#d5bdf6"] ;
6 -> 7 ;
8 [label="petal width (cm) <= 1.75\ngini = 0.44\nsamples = 2\nvalue = [0, 2, 1]\nclass = versicolor", fillcolor="#9cf2c0"] ;
7 -> 8 ;
9 [label="gini = 0.0\nsamples = 1\nvalue = [0, 0, 1]\nclass = virginica", fillcolor="#8139e5"] ;
8 -> 9 ;
10 [label="gini = 0.0\nsamples = 1\nvalue = [0, 2, 0]\nclass = versicolor", fillcolor="#39e581"] ;
8 -> 10 ;
11 [label="gini = 0.0\nsamples = 2\nvalue = [0, 0, 2]\nclass = virginica", fillcolor="#8139e5"] ;
7 -> 11 ;
12 [label="gini = 0.0\nsamples = 24\nvalue = [0, 0, 34]\nclass = virginica", fillcolor="#8139e5"] ;
6 -> 12 ;
}