digraph Tree {
node [shape=box, fontname="helvetica"] ;
edge [fontname="helvetica"] ;
0 [label="X[60] <= 0.5\nentropy = 0.948\nsamples = 355\nvalue = [130, 225]"] ;
1 [label="X[67] <= 0.5\nentropy = 0.887\nsamples = 312\nvalue = [95, 217]"] ;
0 -> 1 [labeldistance=2.5, labelangle=45, headlabel="True"] ;
2 [label="X[66] <= 0.5\nentropy = 0.866\nsamples = 302\nvalue = [87, 215]"] ;
1 -> 2 ;
3 [label="X[42] <= 0.5\nentropy = 0.846\nsamples = 293\nvalue = [80, 213]"] ;
2 -> 3 ;
4 [label="X[86] <= 0.5\nentropy = 0.835\nsamples = 290\nvalue = [77, 213]"] ;
3 -> 4 ;
5 [label="X[96] <= 0.5\nentropy = 0.851\nsamples = 278\nvalue = [77, 201]"] ;
4 -> 5 ;
6 [label="X[54] <= 0.5\nentropy = 0.865\nsamples = 268\nvalue = [77, 191]"] ;
5 -> 6 ;
7 [label="X[73] <= 0.5\nentropy = 0.833\nsamples = 242\nvalue = [64, 178]"] ;
6 -> 7 ;
8 [label="X[61] <= 0.5\nentropy = 0.813\nsamples = 235\nvalue = [59, 176]"] ;
7 -> 8 ;
9 [label="X[48] <= 0.5\nentropy = 0.803\nsamples = 233\nvalue = [57, 176]"] ;
8 -> 9 ;
10 [label="X[111] <= 0.5\nentropy = 0.792\nsamples = 231\nvalue = [55, 176]"] ;
9 -> 10 ;
11 [label="X[135] <= 0.5\nentropy = 0.781\nsamples = 229\nvalue = [53, 176]"] ;
10 -> 11 ;
12 [label="X[423] <= 0.5\nentropy = 0.769\nsamples = 227\nvalue = [51, 176]"] ;
11 -> 12 ;
13 [label="X[125] <= 0.5\nentropy = 0.756\nsamples = 225\nvalue = [49, 176]"] ;
12 -> 13 ;
14 [label="X[65] <= 0.5\nentropy = 0.743\nsamples = 223\nvalue = [47, 176]"] ;
13 -> 14 ;
15 [label="X[131] <= 0.5\nentropy = 0.718\nsamples = 217\nvalue = [43, 174]"] ;
14 -> 15 ;
16 [label="X[70] <= 0.5\nentropy = 0.703\nsamples = 215\nvalue = [41, 174]"] ;
15 -> 16 ;
17 [label="X[69] <= 0.5\nentropy = 0.674\nsamples = 209\nvalue = [37, 172]"] ;
16 -> 17 ;
18 [label="X[210] <= 0.5\nentropy = 0.64\nsamples = 203\nvalue = [33, 170]"] ;
17 -> 18 ;
19 [label="X[76] <= 0.5\nentropy = 0.612\nsamples = 199\nvalue = [30, 169]"] ;
18 -> 19 ;
20 [label="X[12] <= 0.5\nentropy = 0.582\nsamples = 194\nvalue = [27, 167]"] ;
19 -> 20 ;
21 [label="X[52] <= 0.5\nentropy = 0.614\nsamples = 178\nvalue = [27, 151]"] ;
20 -> 21 ;
22 [label="X[64] <= 0.5\nentropy = 0.462\nsamples = 92\nvalue = [9, 83]"] ;
21 -> 22 ;
23 [label="X[1153] <= 0.5\nentropy = 0.394\nsamples = 90\nvalue = [7, 83]"] ;
22 -> 23 ;
24 [label="X[1120] <= 0.5\nentropy = 0.356\nsamples = 89\nvalue = [6, 83]"] ;
23 -> 24 ;
25 [label="X[1189] <= 0.5\nentropy = 0.315\nsamples = 88\nvalue = [5, 83]"] ;
24 -> 25 ;
26 [label="X[686] <= 0.5\nentropy = 0.269\nsamples = 87\nvalue = [4, 83]"] ;
25 -> 26 ;
27 [label="X[1118] <= 0.5\nentropy = 0.218\nsamples = 86\nvalue = [3, 83]"] ;
26 -> 27 ;
28 [label="X[1089] <= 0.5\nentropy = 0.161\nsamples = 85\nvalue = [2, 83]"] ;
27 -> 28 ;
29 [label="X[208] <= 0.5\nentropy = 0.093\nsamples = 84\nvalue = [1, 83]"] ;
28 -> 29 ;
30 [label="entropy = 0.0\nsamples = 83\nvalue = [0, 83]"] ;
29 -> 30 ;
31 [label="entropy = 0.0\nsamples = 1\nvalue = [1, 0]"] ;
29 -> 31 ;
32 [label="entropy = 0.0\nsamples = 1\nvalue = [1, 0]"] ;
28 -> 32 ;
33 [label="entropy = 0.0\nsamples = 1\nvalue = [1, 0]"] ;
27 -> 33 ;
34 [label="entropy = 0.0\nsamples = 1\nvalue = [1, 0]"] ;
26 -> 34 ;
35 [label="entropy = 0.0\nsamples = 1\nvalue = [1, 0]"] ;
25 -> 35 ;
36 [label="entropy = 0.0\nsamples = 1\nvalue = [1, 0]"] ;
24 -> 36 ;
37 [label="entropy = 0.0\nsamples = 1\nvalue = [1, 0]"] ;
23 -> 37 ;
38 [label="entropy = 0.0\nsamples = 2\nvalue = [2, 0]"] ;
22 -> 38 ;
39 [label="X[59] <= 0.5\nentropy = 0.74\nsamples = 86\nvalue = [18, 68]"] ;
21 -> 39 ;
40 [label="X[74] <= 0.5\nentropy = 0.823\nsamples = 66\nvalue = [17, 49]"] ;
39 -> 40 ;
41 [label="X[1203] <= 0.5\nentropy = 0.786\nsamples = 64\nvalue = [15, 49]"] ;
40 -> 41 ;
42 [label="X[82] <= 0.5\nentropy = 0.592\nsamples = 35\nvalue = [5, 30]"] ;
41 -> 42 ;
43 [label="X[75] <= 0.5\nentropy = 0.439\nsamples = 33\nvalue = [3, 30]"] ;
42 -> 43 ;
44 [label="X[1184] <= 0.5\nentropy = 0.337\nsamples = 32\nvalue = [2, 30]"] ;
43 -> 44 ;
45 [label="X[84] <= 0.5\nentropy = 0.206\nsamples = 31\nvalue = [1, 30]"] ;
44 -> 45 ;
46 [label="entropy = 0.0\nsamples = 30\nvalue = [0, 30]"] ;
45 -> 46 ;
47 [label="entropy = 0.0\nsamples = 1\nvalue = [1, 0]"] ;
45 -> 47 ;
48 [label="entropy = 0.0\nsamples = 1\nvalue = [1, 0]"] ;
44 -> 48 ;
49 [label="entropy = 0.0\nsamples = 1\nvalue = [1, 0]"] ;
43 -> 49 ;
50 [label="entropy = 0.0\nsamples = 2\nvalue = [2, 0]"] ;
42 -> 50 ;
51 [label="X[114] <= 0.5\nentropy = 0.929\nsamples = 29\nvalue = [10, 19]"] ;
41 -> 51 ;
52 [label="X[501] <= 0.5\nentropy = 0.906\nsamples = 28\nvalue = [9, 19]"] ;
51 -> 52 ;
53 [label="X[1145] <= 0.5\nentropy = 0.877\nsamples = 27\nvalue = [8, 19]"] ;
52 -> 53 ;
54 [label="X[72] <= 0.5\nentropy = 0.84\nsamples = 26\nvalue = [7, 19]"] ;
53 -> 54 ;
55 [label="X[1056] <= 0.5\nentropy = 0.795\nsamples = 25\nvalue = [6, 19]"] ;
54 -> 55 ;
56 [label="X[90] <= 0.5\nentropy = 0.738\nsamples = 24\nvalue = [5, 19]"] ;
55 -> 56 ;
57 [label="X[151] <= 0.5\nentropy = 0.667\nsamples = 23\nvalue = [4, 19]"] ;
56 -> 57 ;
58 [label="X[209] <= 0.5\nentropy = 0.575\nsamples = 22\nvalue = [3, 19]"] ;
57 -> 58 ;
59 [label="X[1168] <= 0.5\nentropy = 0.454\nsamples = 21\nvalue = [2, 19]"] ;
58 -> 59 ;
60 [label="X[400] <= 0.5\nentropy = 0.286\nsamples = 20\nvalue = [1, 19]"] ;
59 -> 60 ;
61 [label="entropy = 0.0\nsamples = 19\nvalue = [0, 19]"] ;
60 -> 61 ;
62 [label="entropy = 0.0\nsamples = 1\nvalue = [1, 0]"] ;
60 -> 62 ;
63 [label="entropy = 0.0\nsamples = 1\nvalue = [1, 0]"] ;
59 -> 63 ;
64 [label="entropy = 0.0\nsamples = 1\nvalue = [1, 0]"] ;
58 -> 64 ;
65 [label="entropy = 0.0\nsamples = 1\nvalue = [1, 0]"] ;
57 -> 65 ;
66 [label="entropy = 0.0\nsamples = 1\nvalue = [1, 0]"] ;
56 -> 66 ;
67 [label="entropy = 0.0\nsamples = 1\nvalue = [1, 0]"] ;
55 -> 67 ;
68 [label="entropy = 0.0\nsamples = 1\nvalue = [1, 0]"] ;
54 -> 68 ;
69 [label="entropy = 0.0\nsamples = 1\nvalue = [1, 0]"] ;
53 -> 69 ;
70 [label="entropy = 0.0\nsamples = 1\nvalue = [1, 0]"] ;
52 -> 70 ;
71 [label="entropy = 0.0\nsamples = 1\nvalue = [1, 0]"] ;
51 -> 71 ;
72 [label="entropy = 0.0\nsamples = 2\nvalue = [2, 0]"] ;
40 -> 72 ;
73 [label="X[1136] <= 0.5\nentropy = 0.286\nsamples = 20\nvalue = [1, 19]"] ;
39 -> 73 ;
74 [label="entropy = 0.0\nsamples = 19\nvalue = [0, 19]"] ;
73 -> 74 ;
75 [label="entropy = 0.0\nsamples = 1\nvalue = [1, 0]"] ;
73 -> 75 ;
76 [label="entropy = 0.0\nsamples = 16\nvalue = [0, 16]"] ;
20 -> 76 ;
77 [label="X[53] <= 0.5\nentropy = 0.971\nsamples = 5\nvalue = [3, 2]"] ;
19 -> 77 ;
78 [label="X[38] <= 0.5\nentropy = 0.918\nsamples = 3\nvalue = [1, 2]"] ;
77 -> 78 ;
79 [label="entropy = 0.0\nsamples = 2\nvalue = [0, 2]"] ;
78 -> 79 ;
80 [label="entropy = 0.0\nsamples = 1\nvalue = [1, 0]"] ;
78 -> 80 ;
81 [label="entropy = 0.0\nsamples = 2\nvalue = [2, 0]"] ;
77 -> 81 ;
82 [label="X[56] <= 0.5\nentropy = 0.811\nsamples = 4\nvalue = [3, 1]"] ;
18 -> 82 ;
83 [label="entropy = 0.0\nsamples = 3\nvalue = [3, 0]"] ;
82 -> 83 ;
84 [label="entropy = 0.0\nsamples = 1\nvalue = [0, 1]"] ;
82 -> 84 ;
85 [label="X[8] <= 0.5\nentropy = 0.918\nsamples = 6\nvalue = [4, 2]"] ;
17 -> 85 ;
86 [label="entropy = 0.0\nsamples = 4\nvalue = [4, 0]"] ;
85 -> 86 ;
87 [label="entropy = 0.0\nsamples = 2\nvalue = [0, 2]"] ;
85 -> 87 ;
88 [label="X[8] <= 0.5\nentropy = 0.918\nsamples = 6\nvalue = [4, 2]"] ;
16 -> 88 ;
89 [label="entropy = 0.0\nsamples = 3\nvalue = [3, 0]"] ;
88 -> 89 ;
90 [label="X[394] <= 0.5\nentropy = 0.918\nsamples = 3\nvalue = [1, 2]"] ;
88 -> 90 ;
91 [label="entropy = 0.0\nsamples = 2\nvalue = [0, 2]"] ;
90 -> 91 ;
92 [label="entropy = 0.0\nsamples = 1\nvalue = [1, 0]"] ;
90 -> 92 ;
93 [label="entropy = 0.0\nsamples = 2\nvalue = [2, 0]"] ;
15 -> 93 ;
94 [label="X[59] <= 0.5\nentropy = 0.918\nsamples = 6\nvalue = [4, 2]"] ;
14 -> 94 ;
95 [label="entropy = 0.0\nsamples = 3\nvalue = [3, 0]"] ;
94 -> 95 ;
96 [label="X[158] <= 0.5\nentropy = 0.918\nsamples = 3\nvalue = [1, 2]"] ;
94 -> 96 ;
97 [label="entropy = 0.0\nsamples = 2\nvalue = [0, 2]"] ;
96 -> 97 ;
98 [label="entropy = 0.0\nsamples = 1\nvalue = [1, 0]"] ;
96 -> 98 ;
99 [label="entropy = 0.0\nsamples = 2\nvalue = [2, 0]"] ;
13 -> 99 ;
100 [label="entropy = 0.0\nsamples = 2\nvalue = [2, 0]"] ;
12 -> 100 ;
101 [label="entropy = 0.0\nsamples = 2\nvalue = [2, 0]"] ;
11 -> 101 ;
102 [label="entropy = 0.0\nsamples = 2\nvalue = [2, 0]"] ;
10 -> 102 ;
103 [label="entropy = 0.0\nsamples = 2\nvalue = [2, 0]"] ;
9 -> 103 ;
104 [label="entropy = 0.0\nsamples = 2\nvalue = [2, 0]"] ;
8 -> 104 ;
105 [label="X[903] <= 0.5\nentropy = 0.863\nsamples = 7\nvalue = [5, 2]"] ;
7 -> 105 ;
106 [label="X[434] <= 0.5\nentropy = 0.65\nsamples = 6\nvalue = [5, 1]"] ;
105 -> 106 ;
107 [label="entropy = 0.0\nsamples = 5\nvalue = [5, 0]"] ;
106 -> 107 ;
108 [label="entropy = 0.0\nsamples = 1\nvalue = [0, 1]"] ;
106 -> 108 ;
109 [label="entropy = 0.0\nsamples = 1\nvalue = [0, 1]"] ;
105 -> 109 ;
110 [label="X[79] <= 0.5\nentropy = 1.0\nsamples = 26\nvalue = [13, 13]"] ;
6 -> 110 ;
111 [label="X[83] <= 0.5\nentropy = 0.995\nsamples = 24\nvalue = [11, 13]"] ;
110 -> 111 ;
112 [label="X[153] <= 0.5\nentropy = 0.976\nsamples = 22\nvalue = [9, 13]"] ;
111 -> 112 ;
113 [label="X[1006] <= 0.5\nentropy = 0.934\nsamples = 20\nvalue = [7, 13]"] ;
112 -> 113 ;
114 [label="X[505] <= 0.5\nentropy = 0.9\nsamples = 19\nvalue = [6, 13]"] ;
113 -> 114 ;
115 [label="X[165] <= 0.5\nentropy = 0.852\nsamples = 18\nvalue = [5, 13]"] ;
114 -> 115 ;
116 [label="X[984] <= 0.5\nentropy = 0.787\nsamples = 17\nvalue = [4, 13]"] ;
115 -> 116 ;
117 [label="X[387] <= 0.5\nentropy = 0.696\nsamples = 16\nvalue = [3, 13]"] ;
116 -> 117 ;
118 [label="X[62] <= 0.5\nentropy = 0.567\nsamples = 15\nvalue = [2, 13]"] ;
117 -> 118 ;
119 [label="X[1132] <= 0.5\nentropy = 0.371\nsamples = 14\nvalue = [1, 13]"] ;
118 -> 119 ;
120 [label="entropy = 0.0\nsamples = 13\nvalue = [0, 13]"] ;
119 -> 120 ;
121 [label="entropy = 0.0\nsamples = 1\nvalue = [1, 0]"] ;
119 -> 121 ;
122 [label="entropy = 0.0\nsamples = 1\nvalue = [1, 0]"] ;
118 -> 122 ;
123 [label="entropy = 0.0\nsamples = 1\nvalue = [1, 0]"] ;
117 -> 123 ;
124 [label="entropy = 0.0\nsamples = 1\nvalue = [1, 0]"] ;
116 -> 124 ;
125 [label="entropy = 0.0\nsamples = 1\nvalue = [1, 0]"] ;
115 -> 125 ;
126 [label="entropy = 0.0\nsamples = 1\nvalue = [1, 0]"] ;
114 -> 126 ;
127 [label="entropy = 0.0\nsamples = 1\nvalue = [1, 0]"] ;
113 -> 127 ;
128 [label="entropy = 0.0\nsamples = 2\nvalue = [2, 0]"] ;
112 -> 128 ;
129 [label="entropy = 0.0\nsamples = 2\nvalue = [2, 0]"] ;
111 -> 129 ;
130 [label="entropy = 0.0\nsamples = 2\nvalue = [2, 0]"] ;
110 -> 130 ;
131 [label="entropy = 0.0\nsamples = 10\nvalue = [0, 10]"] ;
5 -> 131 ;
132 [label="entropy = 0.0\nsamples = 12\nvalue = [0, 12]"] ;
4 -> 132 ;
133 [label="entropy = 0.0\nsamples = 3\nvalue = [3, 0]"] ;
3 -> 133 ;
134 [label="X[4] <= 0.5\nentropy = 0.764\nsamples = 9\nvalue = [7, 2]"] ;
2 -> 134 ;
135 [label="X[5] <= 0.5\nentropy = 0.544\nsamples = 8\nvalue = [7, 1]"] ;
134 -> 135 ;
136 [label="entropy = 0.0\nsamples = 7\nvalue = [7, 0]"] ;
135 -> 136 ;
137 [label="entropy = 0.0\nsamples = 1\nvalue = [0, 1]"] ;
135 -> 137 ;
138 [label="entropy = 0.0\nsamples = 1\nvalue = [0, 1]"] ;
134 -> 138 ;
139 [label="X[3] <= 0.5\nentropy = 0.722\nsamples = 10\nvalue = [8, 2]"] ;
1 -> 139 ;
140 [label="X[58] <= 0.5\nentropy = 0.503\nsamples = 9\nvalue = [8, 1]"] ;
139 -> 140 ;
141 [label="entropy = 0.0\nsamples = 8\nvalue = [8, 0]"] ;
140 -> 141 ;
142 [label="entropy = 0.0\nsamples = 1\nvalue = [0, 1]"] ;
140 -> 142 ;
143 [label="entropy = 0.0\nsamples = 1\nvalue = [0, 1]"] ;
139 -> 143 ;
144 [label="X[108] <= 0.5\nentropy = 0.693\nsamples = 43\nvalue = [35, 8]"] ;
0 -> 144 [labeldistance=2.5, labelangle=-45, headlabel="False"] ;
145 [label="X[55] <= 0.5\nentropy = 0.918\nsamples = 24\nvalue = [16, 8]"] ;
144 -> 145 ;
146 [label="X[141] <= 0.5\nentropy = 0.998\nsamples = 17\nvalue = [9, 8]"] ;
145 -> 146 ;
147 [label="X[111] <= 0.5\nentropy = 0.971\nsamples = 15\nvalue = [9, 6]"] ;
146 -> 147 ;
148 [label="X[360] <= 0.5\nentropy = 0.996\nsamples = 13\nvalue = [7, 6]"] ;
147 -> 148 ;
149 [label="X[361] <= 0.5\nentropy = 0.98\nsamples = 12\nvalue = [7, 5]"] ;
148 -> 149 ;
150 [label="X[321] <= 0.5\nentropy = 0.946\nsamples = 11\nvalue = [7, 4]"] ;
149 -> 150 ;
151 [label="X[120] <= 0.5\nentropy = 0.881\nsamples = 10\nvalue = [7, 3]"] ;
150 -> 151 ;
152 [label="X[57] <= 0.5\nentropy = 0.764\nsamples = 9\nvalue = [7, 2]"] ;
151 -> 152 ;
153 [label="entropy = 0.0\nsamples = 5\nvalue = [5, 0]"] ;
152 -> 153 ;
154 [label="X[52] <= 0.5\nentropy = 1.0\nsamples = 4\nvalue = [2, 2]"] ;
152 -> 154 ;
155 [label="entropy = 0.0\nsamples = 1\nvalue = [0, 1]"] ;
154 -> 155 ;
156 [label="X[371] <= 0.5\nentropy = 0.918\nsamples = 3\nvalue = [2, 1]"] ;
154 -> 156 ;
157 [label="entropy = 0.0\nsamples = 2\nvalue = [2, 0]"] ;
156 -> 157 ;
158 [label="entropy = 0.0\nsamples = 1\nvalue = [0, 1]"] ;
156 -> 158 ;
159 [label="entropy = 0.0\nsamples = 1\nvalue = [0, 1]"] ;
151 -> 159 ;
160 [label="entropy = 0.0\nsamples = 1\nvalue = [0, 1]"] ;
150 -> 160 ;
161 [label="entropy = 0.0\nsamples = 1\nvalue = [0, 1]"] ;
149 -> 161 ;
162 [label="entropy = 0.0\nsamples = 1\nvalue = [0, 1]"] ;
148 -> 162 ;
163 [label="entropy = 0.0\nsamples = 2\nvalue = [2, 0]"] ;
147 -> 163 ;
164 [label="entropy = 0.0\nsamples = 2\nvalue = [0, 2]"] ;
146 -> 164 ;
165 [label="entropy = 0.0\nsamples = 7\nvalue = [7, 0]"] ;
145 -> 165 ;
166 [label="entropy = 0.0\nsamples = 19\nvalue = [19, 0]"] ;
144 -> 166 ;
}
